{"Length": 2, "weights": [[[-0.15349636726265037, 0.5496449887705062, 0.45577452878027636, -0.4518953489945947, -0.3522420391633303, 0.6913943398972577], [-0.8049371640584628, 0.6114368714085872, -0.601001890669123, -0.29411521789741224, 0.4537151967220079, -0.7197685117239794], [-0.941473439370758, 0.06769889541620633, 0.4993513925436701, 0.7356562722408877, 0.7236254565487024, -0.36634470478078196], [0.593139351532519, 0.8905188416840939, 0.8001268704127935, 0.7047152969991735, -0.04162301221023723, 0.9728537989560504], [0.11659291490115486, 0.6014083583841854, -0.671432260477232, -0.20207810395991532, -0.13706577709310808, -0.08730141443601491]], [[0.3263534199603859, 0.04775593098569364, 0.7002867869738041, 0.00984400986515177], [0.3232133411014284, -0.40276741808497696, -0.9798014154626682, 0.6629841806417716], [0.2424181657689437, 0.21417384525319605, -0.9815135940933803, -0.08522366156207162], [-0.23186371804310002, -0.6707145322474068, -0.11163676815142987, 0.514969341391216], [0.6469438726804075, 0.6257159127645597, 0.35651413063012094, 0.06486182585761302], [-0.18306253425250163, 0.6215634697695762, -0.7785534349155834, -0.8506249471965759]]], "biases": [[0.37821398940028583, -0.9957751729398112, 0.8009951534789226, -0.5600901435817025, 0.9135211685354758, 0.4975383473879833], [0.0030029158692039815, -0.6519303818319966, 0.658569040879168, -0.21664851388804784]], "inputs": [[0.89, 0.863, 0.123, 0.59, 0.72], [0, 1, 0, 1, 0, 0]], "reward": 6000}